digraph Tree {
node [shape=box, style="filled", color="black", fontname="helvetica"] ;
edge [fontname="helvetica"] ;
0 [label="ma20_gr_ma50 <= 0.5\ngini = 0.5\nsamples = 2200\nvalue = [1092, 1108]", fillcolor="#fcfeff"] ;
1 [label="Range <= 0.016\ngini = 0.498\nsamples = 918\nvalue = [428, 490]", fillcolor="#e6f3fc"] ;
0 -> 1 [labeldistance=2.5, labelangle=45, headlabel="True"] ;
19 [label="Range <= 0.015\ngini = 0.494\nsamples = 63\nvalue = [35, 28]", fillcolor="#fae6d7"] ;
1 -> 19 ;
21 [label="gini = 0.463\nsamples = 33\nvalue = [12, 21]", fillcolor="#aad5f4"] ;
19 -> 21 ;
22 [label="gini = 0.358\nsamples = 30\nvalue = [23, 7]", fillcolor="#eda775"] ;
19 -> 22 ;
20 [label="Range <= 0.024\ngini = 0.497\nsamples = 855\nvalue = [393, 462]", fillcolor="#e1f0fb"] ;
1 -> 20 ;
23 [label="Range <= 0.021\ngini = 0.485\nsamples = 244\nvalue = [101, 143]", fillcolor="#c5e2f7"] ;
20 -> 23 ;
27 [label="Range <= 0.019\ngini = 0.498\nsamples = 142\nvalue = [67, 75]", fillcolor="#eaf5fc"] ;
23 -> 27 ;
29 [label="yr <= 0.5\ngini = 0.47\nsamples = 69\nvalue = [26, 43]", fillcolor="#b1d8f5"] ;
27 -> 29 ;
79 [label="gini = 0.397\nsamples = 22\nvalue = [6, 16]", fillcolor="#83c2ef"] ;
29 -> 79 ;
80 [label="Range <= 0.018\ngini = 0.489\nsamples = 47\nvalue = [20, 27]", fillcolor="#cce6f8"] ;
29 -> 80 ;
87 [label="gini = 0.454\nsamples = 23\nvalue = [8, 15]", fillcolor="#a3d1f3"] ;
80 -> 87 ;
88 [label="gini = 0.5\nsamples = 24\nvalue = [12, 12]", fillcolor="#ffffff"] ;
80 -> 88 ;
30 [label="Range <= 0.02\ngini = 0.492\nsamples = 73\nvalue = [41, 32]", fillcolor="#f9e3d4"] ;
27 -> 30 ;
91 [label="gini = 0.472\nsamples = 34\nvalue = [21, 13]", fillcolor="#f5cfb4"] ;
30 -> 91 ;
92 [label="gini = 0.5\nsamples = 39\nvalue = [20, 19]", fillcolor="#fef9f5"] ;
30 -> 92 ;
28 [label="Range <= 0.022\ngini = 0.444\nsamples = 102\nvalue = [34, 68]", fillcolor="#9ccef2"] ;
23 -> 28 ;
51 [label="gini = 0.33\nsamples = 24\nvalue = [5, 19]", fillcolor="#6db7ec"] ;
28 -> 51 ;
52 [label="Range <= 0.023\ngini = 0.467\nsamples = 78\nvalue = [29, 49]", fillcolor="#aed7f4"] ;
28 -> 52 ;
53 [label="gini = 0.491\nsamples = 51\nvalue = [22, 29]", fillcolor="#cfe7f9"] ;
52 -> 53 ;
54 [label="gini = 0.384\nsamples = 27\nvalue = [7, 20]", fillcolor="#7ebfee"] ;
52 -> 54 ;
24 [label="Range <= 0.024\ngini = 0.499\nsamples = 611\nvalue = [292, 319]", fillcolor="#eef7fd"] ;
20 -> 24 ;
25 [label="gini = 0.386\nsamples = 23\nvalue = [17, 6]", fillcolor="#eead7f"] ;
24 -> 25 ;
26 [label="Range <= 0.025\ngini = 0.498\nsamples = 588\nvalue = [275, 313]", fillcolor="#e7f3fc"] ;
24 -> 26 ;
31 [label="gini = 0.403\nsamples = 25\nvalue = [7, 18]", fillcolor="#86c3ef"] ;
26 -> 31 ;
32 [label="wk <= 0.5\ngini = 0.499\nsamples = 563\nvalue = [268, 295]", fillcolor="#edf6fd"] ;
26 -> 32 ;
33 [label="Range <= 0.031\ngini = 0.499\nsamples = 230\nvalue = [120, 110]", fillcolor="#fdf5ef"] ;
32 -> 33 ;
35 [label="yr <= 0.5\ngini = 0.473\nsamples = 65\nvalue = [40, 25]", fillcolor="#f5d0b5"] ;
33 -> 35 ;
63 [label="gini = 0.397\nsamples = 22\nvalue = [16, 6]", fillcolor="#efb083"] ;
35 -> 63 ;
64 [label="gini = 0.493\nsamples = 43\nvalue = [24, 19]", fillcolor="#fae5d6"] ;
35 -> 64 ;
36 [label="Range <= 0.038\ngini = 0.5\nsamples = 165\nvalue = [80, 85]", fillcolor="#f3f9fd"] ;
33 -> 36 ;
81 [label="Range <= 0.034\ngini = 0.485\nsamples = 46\nvalue = [19, 27]", fillcolor="#c4e2f7"] ;
36 -> 81 ;
97 [label="gini = 0.476\nsamples = 23\nvalue = [9, 14]", fillcolor="#b8dcf6"] ;
81 -> 97 ;
98 [label="gini = 0.491\nsamples = 23\nvalue = [10, 13]", fillcolor="#d1e8f9"] ;
81 -> 98 ;
82 [label="Range <= 0.043\ngini = 0.5\nsamples = 119\nvalue = [61, 58]", fillcolor="#fef9f5"] ;
36 -> 82 ;
83 [label="gini = 0.438\nsamples = 34\nvalue = [23, 11]", fillcolor="#f1bd98"] ;
82 -> 83 ;
84 [label="gini = 0.494\nsamples = 85\nvalue = [38, 47]", fillcolor="#d9ecfa"] ;
82 -> 84 ;
34 [label="Range <= 0.039\ngini = 0.494\nsamples = 333\nvalue = [148, 185]", fillcolor="#d7ebfa"] ;
32 -> 34 ;
37 [label="Range <= 0.034\ngini = 0.484\nsamples = 193\nvalue = [79, 114]", fillcolor="#c2e1f7"] ;
34 -> 37 ;
39 [label="Range <= 0.031\ngini = 0.497\nsamples = 147\nvalue = [68, 79]", fillcolor="#e3f1fb"] ;
37 -> 39 ;
85 [label="gini = 0.491\nsamples = 104\nvalue = [45, 59]", fillcolor="#d0e8f9"] ;
39 -> 85 ;
86 [label="gini = 0.498\nsamples = 43\nvalue = [23, 20]", fillcolor="#fcefe5"] ;
39 -> 86 ;
40 [label="Range <= 0.036\ngini = 0.364\nsamples = 46\nvalue = [11, 35]", fillcolor="#77bced"] ;
37 -> 40 ;
95 [label="gini = 0.298\nsamples = 22\nvalue = [4, 18]", fillcolor="#65b3eb"] ;
40 -> 95 ;
96 [label="gini = 0.413\nsamples = 24\nvalue = [7, 17]", fillcolor="#8bc5f0"] ;
40 -> 96 ;
38 [label="Range <= 0.041\ngini = 0.5\nsamples = 140\nvalue = [69, 71]", fillcolor="#f9fcfe"] ;
34 -> 38 ;
41 [label="gini = 0.461\nsamples = 25\nvalue = [16, 9]", fillcolor="#f4c8a8"] ;
38 -> 41 ;
42 [label="Range <= 0.066\ngini = 0.497\nsamples = 115\nvalue = [53, 62]", fillcolor="#e2f1fb"] ;
38 -> 42 ;
55 [label="gini = 0.487\nsamples = 81\nvalue = [34, 47]", fillcolor="#c8e4f8"] ;
42 -> 55 ;
56 [label="gini = 0.493\nsamples = 34\nvalue = [19, 15]", fillcolor="#fae4d5"] ;
42 -> 56 ;
2 [label="yr <= 0.5\ngini = 0.499\nsamples = 1282\nvalue = [664, 618]", fillcolor="#fdf6f1"] ;
0 -> 2 [labeldistance=2.5, labelangle=-45, headlabel="False"] ;
3 [label="Range <= 0.071\ngini = 0.496\nsamples = 552\nvalue = [302, 250]", fillcolor="#fbe9dd"] ;
2 -> 3 ;
15 [label="Range <= 0.056\ngini = 0.497\nsamples = 521\nvalue = [281, 240]", fillcolor="#fbede2"] ;
3 -> 15 ;
17 [label="Range <= 0.047\ngini = 0.495\nsamples = 484\nvalue = [266, 218]", fillcolor="#fae8db"] ;
15 -> 17 ;
43 [label="Range <= 0.042\ngini = 0.497\nsamples = 448\nvalue = [242, 206]", fillcolor="#fbece2"] ;
17 -> 43 ;
45 [label="Range <= 0.018\ngini = 0.495\nsamples = 420\nvalue = [231, 189]", fillcolor="#fae8db"] ;
43 -> 45 ;
69 [label="Range <= 0.017\ngini = 0.5\nsamples = 72\nvalue = [35, 37]", fillcolor="#f4fafe"] ;
45 -> 69 ;
75 [label="Range <= 0.015\ngini = 0.494\nsamples = 45\nvalue = [25, 20]", fillcolor="#fae6d7"] ;
69 -> 75 ;
77 [label="gini = 0.491\nsamples = 23\nvalue = [10, 13]", fillcolor="#d1e8f9"] ;
75 -> 77 ;
78 [label="gini = 0.434\nsamples = 22\nvalue = [15, 7]", fillcolor="#f1bc95"] ;
75 -> 78 ;
76 [label="gini = 0.466\nsamples = 27\nvalue = [10, 17]", fillcolor="#add7f4"] ;
69 -> 76 ;
70 [label="Range <= 0.023\ngini = 0.492\nsamples = 348\nvalue = [196, 152]", fillcolor="#f9e3d3"] ;
45 -> 70 ;
71 [label="Range <= 0.021\ngini = 0.458\nsamples = 76\nvalue = [49, 27]", fillcolor="#f3c6a6"] ;
70 -> 71 ;
89 [label="gini = 0.478\nsamples = 48\nvalue = [29, 19]", fillcolor="#f6d4bb"] ;
71 -> 89 ;
90 [label="gini = 0.408\nsamples = 28\nvalue = [20, 8]", fillcolor="#efb388"] ;
71 -> 90 ;
72 [label="wk <= 0.5\ngini = 0.497\nsamples = 272\nvalue = [147, 125]", fillcolor="#fbece1"] ;
70 -> 72 ;
73 [label="gini = 0.499\nsamples = 109\nvalue = [52, 57]", fillcolor="#eef6fd"] ;
72 -> 73 ;
74 [label="gini = 0.486\nsamples = 163\nvalue = [95, 68]", fillcolor="#f8dbc7"] ;
72 -> 74 ;
46 [label="gini = 0.477\nsamples = 28\nvalue = [11, 17]", fillcolor="#b9dcf6"] ;
43 -> 46 ;
44 [label="gini = 0.444\nsamples = 36\nvalue = [24, 12]", fillcolor="#f2c09c"] ;
17 -> 44 ;
18 [label="gini = 0.482\nsamples = 37\nvalue = [15, 22]", fillcolor="#c0e0f7"] ;
15 -> 18 ;
16 [label="gini = 0.437\nsamples = 31\nvalue = [21, 10]", fillcolor="#f1bd97"] ;
3 -> 16 ;
4 [label="Range <= 0.051\ngini = 0.5\nsamples = 730\nvalue = [362, 368]", fillcolor="#fcfdff"] ;
2 -> 4 ;
5 [label="Range <= 0.04\ngini = 0.499\nsamples = 622\nvalue = [301, 321]", fillcolor="#f3f9fd"] ;
4 -> 5 ;
7 [label="Range <= 0.037\ngini = 0.5\nsamples = 534\nvalue = [269, 265]", fillcolor="#fffdfc"] ;
5 -> 7 ;
11 [label="Range <= 0.033\ngini = 0.5\nsamples = 493\nvalue = [243, 250]", fillcolor="#f9fcfe"] ;
7 -> 11 ;
13 [label="Range <= 0.032\ngini = 0.5\nsamples = 435\nvalue = [220, 215]", fillcolor="#fefcfa"] ;
11 -> 13 ;
47 [label="Range <= 0.031\ngini = 0.5\nsamples = 412\nvalue = [205, 207]", fillcolor="#fdfeff"] ;
13 -> 47 ;
49 [label="Range <= 0.026\ngini = 0.5\nsamples = 387\nvalue = [197, 190]", fillcolor="#fefbf8"] ;
47 -> 49 ;
57 [label="gini = 0.5\nsamples = 275\nvalue = [134, 141]", fillcolor="#f5fafe"] ;
49 -> 57 ;
58 [label="gini = 0.492\nsamples = 112\nvalue = [63, 49]", fillcolor="#f9e3d3"] ;
49 -> 58 ;
50 [label="gini = 0.435\nsamples = 25\nvalue = [8, 17]", fillcolor="#96cbf1"] ;
47 -> 50 ;
48 [label="gini = 0.454\nsamples = 23\nvalue = [15, 8]", fillcolor="#f3c4a3"] ;
13 -> 48 ;
14 [label="Range <= 0.035\ngini = 0.479\nsamples = 58\nvalue = [23, 35]", fillcolor="#bbddf6"] ;
11 -> 14 ;
61 [label="gini = 0.438\nsamples = 34\nvalue = [11, 23]", fillcolor="#98ccf1"] ;
14 -> 61 ;
62 [label="gini = 0.5\nsamples = 24\nvalue = [12, 12]", fillcolor="#ffffff"] ;
14 -> 62 ;
12 [label="gini = 0.464\nsamples = 41\nvalue = [26, 15]", fillcolor="#f4caab"] ;
7 -> 12 ;
8 [label="Range <= 0.045\ngini = 0.463\nsamples = 88\nvalue = [32, 56]", fillcolor="#aad5f4"] ;
5 -> 8 ;
9 [label="Range <= 0.043\ngini = 0.4\nsamples = 47\nvalue = [13, 34]", fillcolor="#85c2ef"] ;
8 -> 9 ;
93 [label="gini = 0.34\nsamples = 23\nvalue = [5, 18]", fillcolor="#70b8ec"] ;
9 -> 93 ;
94 [label="gini = 0.444\nsamples = 24\nvalue = [8, 16]", fillcolor="#9ccef2"] ;
9 -> 94 ;
10 [label="gini = 0.497\nsamples = 41\nvalue = [19, 22]", fillcolor="#e4f2fb"] ;
8 -> 10 ;
6 [label="Range <= 0.059\ngini = 0.492\nsamples = 108\nvalue = [61, 47]", fillcolor="#f9e2d2"] ;
4 -> 6 ;
59 [label="gini = 0.451\nsamples = 35\nvalue = [23, 12]", fillcolor="#f3c3a0"] ;
6 -> 59 ;
60 [label="Range <= 0.067\ngini = 0.499\nsamples = 73\nvalue = [38, 35]", fillcolor="#fdf5ef"] ;
6 -> 60 ;
65 [label="gini = 0.49\nsamples = 28\nvalue = [12, 16]", fillcolor="#cee6f8"] ;
60 -> 65 ;
66 [label="Range <= 0.079\ngini = 0.488\nsamples = 45\nvalue = [26, 19]", fillcolor="#f8ddca"] ;
60 -> 66 ;
67 [label="gini = 0.434\nsamples = 22\nvalue = [15, 7]", fillcolor="#f1bc95"] ;
66 -> 67 ;
68 [label="gini = 0.499\nsamples = 23\nvalue = [11, 12]", fillcolor="#eff7fd"] ;
66 -> 68 ;
}